digraph Tree {
node [shape=box] ;
0 [label="h <= 67.5\ngini = 0.4996\nsamples = 4140\nvalue = [2125, 2015]\nclass = female"] ;
1 [label="h <= 65.5\ngini = 0.2841\nsamples = 2251\nvalue = [1865, 386]\nclass = female"] ;
0 -> 1 [labeldistance=2.5, labelangle=45, headlabel="True"] ;
2 [label="h <= 64.5\ngini = 0.1557\nsamples = 1551\nvalue = [1419, 132]\nclass = female"] ;
1 -> 2 ;
3 [label="h <= 63.5\ngini = 0.1014\nsamples = 1213\nvalue = [1148, 65]\nclass = female"] ;
2 -> 3 ;
4 [label="h <= 60.5\ngini = 0.0682\nsamples = 877\nvalue = [846, 31]\nclass = female"] ;
3 -> 4 ;
5 [label="h <= 59.5\ngini = 0.0225\nsamples = 176\nvalue = [174, 2]\nclass = female"] ;
4 -> 5 ;
6 [label="gini = 0.0\nsamples = 67\nvalue = [67, 0]\nclass = female"] ;
5 -> 6 ;
7 [label="gini = 0.036\nsamples = 109\nvalue = [107, 2]\nclass = female"] ;
5 -> 7 ;
8 [label="h <= 62.5\ngini = 0.0793\nsamples = 701\nvalue = [672, 29]\nclass = female"] ;
4 -> 8 ;
9 [label="h <= 61.5\ngini = 0.0729\nsamples = 449\nvalue = [432, 17]\nclass = female"] ;
8 -> 9 ;
10 [label="gini = 0.067\nsamples = 144\nvalue = [139, 5]\nclass = female"] ;
9 -> 10 ;
11 [label="gini = 0.0756\nsamples = 305\nvalue = [293, 12]\nclass = female"] ;
9 -> 11 ;
12 [label="gini = 0.0907\nsamples = 252\nvalue = [240, 12]\nclass = female"] ;
8 -> 12 ;
13 [label="gini = 0.1819\nsamples = 336\nvalue = [302, 34]\nclass = female"] ;
3 -> 13 ;
14 [label="gini = 0.3179\nsamples = 338\nvalue = [271, 67]\nclass = female"] ;
2 -> 14 ;
15 [label="h <= 66.5\ngini = 0.4624\nsamples = 700\nvalue = [446, 254]\nclass = female"] ;
1 -> 15 ;
16 [label="gini = 0.4276\nsamples = 368\nvalue = [254, 114]\nclass = female"] ;
15 -> 16 ;
17 [label="gini = 0.4877\nsamples = 332\nvalue = [192, 140]\nclass = female"] ;
15 -> 17 ;
18 [label="h <= 69.5\ngini = 0.2374\nsamples = 1889\nvalue = [260, 1629]\nclass = male"] ;
0 -> 18 [labeldistance=2.5, labelangle=-45, headlabel="False"] ;
19 [label="h <= 68.5\ngini = 0.4192\nsamples = 622\nvalue = [186, 436]\nclass = male"] ;
18 -> 19 ;
20 [label="gini = 0.4645\nsamples = 319\nvalue = [117, 202]\nclass = male"] ;
19 -> 20 ;
21 [label="gini = 0.3517\nsamples = 303\nvalue = [69, 234]\nclass = male"] ;
19 -> 21 ;
22 [label="h <= 71.5\ngini = 0.11\nsamples = 1267\nvalue = [74, 1193]\nclass = male"] ;
18 -> 22 ;
23 [label="h <= 70.5\ngini = 0.1718\nsamples = 590\nvalue = [56, 534]\nclass = male"] ;
22 -> 23 ;
24 [label="gini = 0.2032\nsamples = 305\nvalue = [35, 270]\nclass = male"] ;
23 -> 24 ;
25 [label="gini = 0.1365\nsamples = 285\nvalue = [21, 264]\nclass = male"] ;
23 -> 25 ;
26 [label="h <= 78.5\ngini = 0.0518\nsamples = 677\nvalue = [18, 659]\nclass = male"] ;
22 -> 26 ;
27 [label="h <= 72.5\ngini = 0.0495\nsamples = 670\nvalue = [17, 653]\nclass = male"] ;
26 -> 27 ;
28 [label="gini = 0.0763\nsamples = 277\nvalue = [11, 266]\nclass = male"] ;
27 -> 28 ;
29 [label="h <= 74.5\ngini = 0.0301\nsamples = 393\nvalue = [6, 387]\nclass = male"] ;
27 -> 29 ;
30 [label="h <= 73.5\ngini = 0.0209\nsamples = 284\nvalue = [3, 281]\nclass = male"] ;
29 -> 30 ;
31 [label="gini = 0.0256\nsamples = 154\nvalue = [2, 152]\nclass = male"] ;
30 -> 31 ;
32 [label="gini = 0.0153\nsamples = 130\nvalue = [1, 129]\nclass = male"] ;
30 -> 32 ;
33 [label="h <= 75.5\ngini = 0.0535\nsamples = 109\nvalue = [3, 106]\nclass = male"] ;
29 -> 33 ;
34 [label="gini = 0.1087\nsamples = 52\nvalue = [3, 49]\nclass = male"] ;
33 -> 34 ;
35 [label="gini = 0.0\nsamples = 57\nvalue = [0, 57]\nclass = male"] ;
33 -> 35 ;
36 [label="h <= 79.5\ngini = 0.2449\nsamples = 7\nvalue = [1, 6]\nclass = male"] ;
26 -> 36 ;
37 [label="gini = 0.4444\nsamples = 3\nvalue = [1, 2]\nclass = male"] ;
36 -> 37 ;
38 [label="gini = 0.0\nsamples = 4\nvalue = [0, 4]\nclass = male"] ;
36 -> 38 ;
}